digraph Tree {
node [shape=box] ;
0 [label="Age <= 24.5\ngini = 0.494\nsamples = 303\nvalue = [135, 168]"] ;
1 [label="Phone Type <= 0.5\ngini = 0.234\nsamples = 133\nvalue = [18, 115]"] ;
0 -> 1 [labeldistance=2.5, labelangle=45, headlabel="True"] ;
2 [label="Age <= 22.0\ngini = 0.463\nsamples = 11\nvalue = [7, 4]"] ;
1 -> 2 ;
3 [label="Age <= 20.5\ngini = 0.245\nsamples = 7\nvalue = [6, 1]"] ;
2 -> 3 ;
4 [label="gini = 0.0\nsamples = 4\nvalue = [4, 0]"] ;
3 -> 4 ;
5 [label="Relationship <= 1.5\ngini = 0.444\nsamples = 3\nvalue = [2, 1]"] ;
3 -> 5 ;
6 [label="gini = 0.0\nsamples = 1\nvalue = [1, 0]"] ;
5 -> 6 ;
7 [label="Relationship <= 2.5\ngini = 0.5\nsamples = 2\nvalue = [1, 1]"] ;
5 -> 7 ;
8 [label="gini = 0.0\nsamples = 1\nvalue = [0, 1]"] ;
7 -> 8 ;
9 [label="gini = 0.0\nsamples = 1\nvalue = [1, 0]"] ;
7 -> 9 ;
10 [label="Current Bike <= 2.5\ngini = 0.375\nsamples = 4\nvalue = [1, 3]"] ;
2 -> 10 ;
11 [label="gini = 0.0\nsamples = 2\nvalue = [0, 2]"] ;
10 -> 11 ;
12 [label="Relationship <= 1.5\ngini = 0.5\nsamples = 2\nvalue = [1, 1]"] ;
10 -> 12 ;
13 [label="gini = 0.0\nsamples = 1\nvalue = [1, 0]"] ;
12 -> 13 ;
14 [label="gini = 0.0\nsamples = 1\nvalue = [0, 1]"] ;
12 -> 14 ;
15 [label="Occupation <= 0.5\ngini = 0.164\nsamples = 122\nvalue = [11, 111]"] ;
1 -> 15 ;
16 [label="Age <= 22.0\ngini = 0.375\nsamples = 4\nvalue = [3, 1]"] ;
15 -> 16 ;
17 [label="gini = 0.0\nsamples = 3\nvalue = [3, 0]"] ;
16 -> 17 ;
18 [label="gini = 0.0\nsamples = 1\nvalue = [0, 1]"] ;
16 -> 18 ;
19 [label="Occupation <= 2.5\ngini = 0.126\nsamples = 118\nvalue = [8, 110]"] ;
15 -> 19 ;
20 [label="Occupation <= 1.5\ngini = 0.071\nsamples = 109\nvalue = [4, 105]"] ;
19 -> 20 ;
21 [label="Age <= 22.5\ngini = 0.408\nsamples = 7\nvalue = [2, 5]"] ;
20 -> 21 ;
22 [label="gini = 0.0\nsamples = 4\nvalue = [0, 4]"] ;
21 -> 22 ;
23 [label="Phone Type <= 1.5\ngini = 0.444\nsamples = 3\nvalue = [2, 1]"] ;
21 -> 23 ;
24 [label="Relationship <= 1.5\ngini = 0.5\nsamples = 2\nvalue = [1, 1]"] ;
23 -> 24 ;
25 [label="gini = 0.0\nsamples = 1\nvalue = [0, 1]"] ;
24 -> 25 ;
26 [label="gini = 0.0\nsamples = 1\nvalue = [1, 0]"] ;
24 -> 26 ;
27 [label="gini = 0.0\nsamples = 1\nvalue = [1, 0]"] ;
23 -> 27 ;
28 [label="Phone Type <= 1.5\ngini = 0.038\nsamples = 102\nvalue = [2, 100]"] ;
20 -> 28 ;
29 [label="Age <= 23.5\ngini = 0.02\nsamples = 98\nvalue = [1, 97]"] ;
28 -> 29 ;
30 [label="gini = 0.0\nsamples = 75\nvalue = [0, 75]"] ;
29 -> 30 ;
31 [label="Current Bike <= 1.5\ngini = 0.083\nsamples = 23\nvalue = [1, 22]"] ;
29 -> 31 ;
32 [label="gini = 0.0\nsamples = 13\nvalue = [0, 13]"] ;
31 -> 32 ;
33 [label="Relationship <= 2.5\ngini = 0.18\nsamples = 10\nvalue = [1, 9]"] ;
31 -> 33 ;
34 [label="gini = 0.0\nsamples = 1\nvalue = [1, 0]"] ;
33 -> 34 ;
35 [label="gini = 0.0\nsamples = 9\nvalue = [0, 9]"] ;
33 -> 35 ;
36 [label="Gender <= 0.5\ngini = 0.375\nsamples = 4\nvalue = [1, 3]"] ;
28 -> 36 ;
37 [label="gini = 0.0\nsamples = 3\nvalue = [0, 3]"] ;
36 -> 37 ;
38 [label="gini = 0.0\nsamples = 1\nvalue = [1, 0]"] ;
36 -> 38 ;
39 [label="Age <= 23.5\ngini = 0.494\nsamples = 9\nvalue = [4, 5]"] ;
19 -> 39 ;
40 [label="Current Bike <= 0.5\ngini = 0.32\nsamples = 5\nvalue = [4, 1]"] ;
39 -> 40 ;
41 [label="gini = 0.0\nsamples = 1\nvalue = [0, 1]"] ;
40 -> 41 ;
42 [label="gini = 0.0\nsamples = 4\nvalue = [4, 0]"] ;
40 -> 42 ;
43 [label="gini = 0.0\nsamples = 4\nvalue = [0, 4]"] ;
39 -> 43 ;
44 [label="Age <= 37.5\ngini = 0.429\nsamples = 170\nvalue = [117, 53]"] ;
0 -> 44 [labeldistance=2.5, labelangle=-45, headlabel="False"] ;
45 [label="Occupation <= 1.5\ngini = 0.5\nsamples = 63\nvalue = [31, 32]"] ;
44 -> 45 ;
46 [label="Gender <= 0.5\ngini = 0.457\nsamples = 34\nvalue = [22, 12]"] ;
45 -> 46 ;
47 [label="Occupation <= 0.5\ngini = 0.32\nsamples = 15\nvalue = [12, 3]"] ;
46 -> 47 ;
48 [label="Current Bike <= 0.5\ngini = 0.219\nsamples = 8\nvalue = [7, 1]"] ;
47 -> 48 ;
49 [label="Age <= 31.0\ngini = 0.5\nsamples = 2\nvalue = [1, 1]"] ;
48 -> 49 ;
50 [label="gini = 0.0\nsamples = 1\nvalue = [1, 0]"] ;
49 -> 50 ;
51 [label="gini = 0.0\nsamples = 1\nvalue = [0, 1]"] ;
49 -> 51 ;
52 [label="gini = 0.0\nsamples = 6\nvalue = [6, 0]"] ;
48 -> 52 ;
53 [label="Relationship <= 1.0\ngini = 0.408\nsamples = 7\nvalue = [5, 2]"] ;
47 -> 53 ;
54 [label="gini = 0.0\nsamples = 1\nvalue = [1, 0]"] ;
53 -> 54 ;
55 [label="Current Bike <= 1.0\ngini = 0.444\nsamples = 6\nvalue = [4, 2]"] ;
53 -> 55 ;
56 [label="gini = 0.0\nsamples = 1\nvalue = [1, 0]"] ;
55 -> 56 ;
57 [label="Age <= 30.5\ngini = 0.48\nsamples = 5\nvalue = [3, 2]"] ;
55 -> 57 ;
58 [label="Age <= 28.5\ngini = 0.5\nsamples = 4\nvalue = [2, 2]"] ;
57 -> 58 ;
59 [label="Phone Type <= 1.0\ngini = 0.444\nsamples = 3\nvalue = [2, 1]"] ;
58 -> 59 ;
60 [label="gini = 0.0\nsamples = 1\nvalue = [1, 0]"] ;
59 -> 60 ;
61 [label="Current Bike <= 3.0\ngini = 0.5\nsamples = 2\nvalue = [1, 1]"] ;
59 -> 61 ;
62 [label="gini = 0.0\nsamples = 1\nvalue = [1, 0]"] ;
61 -> 62 ;
63 [label="gini = 0.0\nsamples = 1\nvalue = [0, 1]"] ;
61 -> 63 ;
64 [label="gini = 0.0\nsamples = 1\nvalue = [0, 1]"] ;
58 -> 64 ;
65 [label="gini = 0.0\nsamples = 1\nvalue = [1, 0]"] ;
57 -> 65 ;
66 [label="Age <= 29.0\ngini = 0.499\nsamples = 19\nvalue = [10, 9]"] ;
46 -> 66 ;
67 [label="Relationship <= 2.0\ngini = 0.32\nsamples = 5\nvalue = [4, 1]"] ;
66 -> 67 ;
68 [label="gini = 0.0\nsamples = 3\nvalue = [3, 0]"] ;
67 -> 68 ;
69 [label="Phone Type <= 1.0\ngini = 0.5\nsamples = 2\nvalue = [1, 1]"] ;
67 -> 69 ;
70 [label="gini = 0.0\nsamples = 1\nvalue = [0, 1]"] ;
69 -> 70 ;
71 [label="gini = 0.0\nsamples = 1\nvalue = [1, 0]"] ;
69 -> 71 ;
72 [label="Phone Type <= 0.5\ngini = 0.49\nsamples = 14\nvalue = [6, 8]"] ;
66 -> 72 ;
73 [label="gini = 0.0\nsamples = 2\nvalue = [2, 0]"] ;
72 -> 73 ;
74 [label="Current Bike <= 3.5\ngini = 0.444\nsamples = 12\nvalue = [4, 8]"] ;
72 -> 74 ;
75 [label="Current Bike <= 0.5\ngini = 0.397\nsamples = 11\nvalue = [3, 8]"] ;
74 -> 75 ;
76 [label="gini = 0.0\nsamples = 3\nvalue = [0, 3]"] ;
75 -> 76 ;
77 [label="Age <= 33.0\ngini = 0.469\nsamples = 8\nvalue = [3, 5]"] ;
75 -> 77 ;
78 [label="Age <= 30.5\ngini = 0.444\nsamples = 3\nvalue = [2, 1]"] ;
77 -> 78 ;
79 [label="gini = 0.0\nsamples = 1\nvalue = [0, 1]"] ;
78 -> 79 ;
80 [label="gini = 0.0\nsamples = 2\nvalue = [2, 0]"] ;
78 -> 80 ;
81 [label="Current Bike <= 2.0\ngini = 0.32\nsamples = 5\nvalue = [1, 4]"] ;
77 -> 81 ;
82 [label="gini = 0.0\nsamples = 3\nvalue = [0, 3]"] ;
81 -> 82 ;
83 [label="Relationship <= 2.5\ngini = 0.5\nsamples = 2\nvalue = [1, 1]"] ;
81 -> 83 ;
84 [label="gini = 0.0\nsamples = 1\nvalue = [1, 0]"] ;
83 -> 84 ;
85 [label="gini = 0.0\nsamples = 1\nvalue = [0, 1]"] ;
83 -> 85 ;
86 [label="gini = 0.0\nsamples = 1\nvalue = [1, 0]"] ;
74 -> 86 ;
87 [label="Age <= 32.5\ngini = 0.428\nsamples = 29\nvalue = [9, 20]"] ;
45 -> 87 ;
88 [label="Current Bike <= 0.5\ngini = 0.494\nsamples = 18\nvalue = [8, 10]"] ;
87 -> 88 ;
89 [label="gini = 0.0\nsamples = 3\nvalue = [0, 3]"] ;
88 -> 89 ;
90 [label="Phone Type <= 1.5\ngini = 0.498\nsamples = 15\nvalue = [8, 7]"] ;
88 -> 90 ;
91 [label="Age <= 28.5\ngini = 0.42\nsamples = 10\nvalue = [7, 3]"] ;
90 -> 91 ;
92 [label="Relationship <= 0.5\ngini = 0.48\nsamples = 5\nvalue = [2, 3]"] ;
91 -> 92 ;
93 [label="gini = 0.0\nsamples = 1\nvalue = [0, 1]"] ;
92 -> 93 ;
94 [label="Phone Type <= 0.5\ngini = 0.5\nsamples = 4\nvalue = [2, 2]"] ;
92 -> 94 ;
95 [label="gini = 0.0\nsamples = 1\nvalue = [0, 1]"] ;
94 -> 95 ;
96 [label="Current Bike <= 3.0\ngini = 0.444\nsamples = 3\nvalue = [2, 1]"] ;
94 -> 96 ;
97 [label="gini = 0.0\nsamples = 2\nvalue = [2, 0]"] ;
96 -> 97 ;
98 [label="gini = 0.0\nsamples = 1\nvalue = [0, 1]"] ;
96 -> 98 ;
99 [label="gini = 0.0\nsamples = 5\nvalue = [5, 0]"] ;
91 -> 99 ;
100 [label="Current Bike <= 2.5\ngini = 0.32\nsamples = 5\nvalue = [1, 4]"] ;
90 -> 100 ;
101 [label="gini = 0.0\nsamples = 3\nvalue = [0, 3]"] ;
100 -> 101 ;
102 [label="Age <= 29.0\ngini = 0.5\nsamples = 2\nvalue = [1, 1]"] ;
100 -> 102 ;
103 [label="gini = 0.0\nsamples = 1\nvalue = [0, 1]"] ;
102 -> 103 ;
104 [label="gini = 0.0\nsamples = 1\nvalue = [1, 0]"] ;
102 -> 104 ;
105 [label="Relationship <= 2.5\ngini = 0.165\nsamples = 11\nvalue = [1, 10]"] ;
87 -> 105 ;
106 [label="gini = 0.0\nsamples = 8\nvalue = [0, 8]"] ;
105 -> 106 ;
107 [label="Age <= 35.5\ngini = 0.444\nsamples = 3\nvalue = [1, 2]"] ;
105 -> 107 ;
108 [label="gini = 0.0\nsamples = 2\nvalue = [0, 2]"] ;
107 -> 108 ;
109 [label="gini = 0.0\nsamples = 1\nvalue = [1, 0]"] ;
107 -> 109 ;
110 [label="Gender <= 0.5\ngini = 0.315\nsamples = 107\nvalue = [86, 21]"] ;
44 -> 110 ;
111 [label="gini = 0.0\nsamples = 55\nvalue = [55, 0]"] ;
110 -> 111 ;
112 [label="Relationship <= 2.5\ngini = 0.482\nsamples = 52\nvalue = [31, 21]"] ;
110 -> 112 ;
113 [label="Age <= 44.5\ngini = 0.454\nsamples = 43\nvalue = [28, 15]"] ;
112 -> 113 ;
114 [label="Current Bike <= 3.5\ngini = 0.5\nsamples = 10\nvalue = [5, 5]"] ;
113 -> 114 ;
115 [label="Age <= 43.0\ngini = 0.469\nsamples = 8\nvalue = [5, 3]"] ;
114 -> 115 ;
116 [label="Occupation <= 2.5\ngini = 0.408\nsamples = 7\nvalue = [5, 2]"] ;
115 -> 116 ;
117 [label="Occupation <= 1.5\ngini = 0.48\nsamples = 5\nvalue = [3, 2]"] ;
116 -> 117 ;
118 [label="Relationship <= 1.5\ngini = 0.375\nsamples = 4\nvalue = [3, 1]"] ;
117 -> 118 ;
119 [label="gini = 0.0\nsamples = 2\nvalue = [2, 0]"] ;
118 -> 119 ;
120 [label="Occupation <= 0.5\ngini = 0.5\nsamples = 2\nvalue = [1, 1]"] ;
118 -> 120 ;
121 [label="gini = 0.0\nsamples = 1\nvalue = [1, 0]"] ;
120 -> 121 ;
122 [label="gini = 0.0\nsamples = 1\nvalue = [0, 1]"] ;
120 -> 122 ;
123 [label="gini = 0.0\nsamples = 1\nvalue = [0, 1]"] ;
117 -> 123 ;
124 [label="gini = 0.0\nsamples = 2\nvalue = [2, 0]"] ;
116 -> 124 ;
125 [label="gini = 0.0\nsamples = 1\nvalue = [0, 1]"] ;
115 -> 125 ;
126 [label="gini = 0.0\nsamples = 2\nvalue = [0, 2]"] ;
114 -> 126 ;
127 [label="Current Bike <= 1.5\ngini = 0.422\nsamples = 33\nvalue = [23, 10]"] ;
113 -> 127 ;
128 [label="Phone Type <= 1.5\ngini = 0.48\nsamples = 15\nvalue = [9, 6]"] ;
127 -> 128 ;
129 [label="Age <= 58.5\ngini = 0.32\nsamples = 10\nvalue = [8, 2]"] ;
128 -> 129 ;
130 [label="Occupation <= 1.0\ngini = 0.198\nsamples = 9\nvalue = [8, 1]"] ;
129 -> 130 ;
131 [label="Age <= 53.5\ngini = 0.375\nsamples = 4\nvalue = [3, 1]"] ;
130 -> 131 ;
132 [label="gini = 0.0\nsamples = 2\nvalue = [2, 0]"] ;
131 -> 132 ;
133 [label="Age <= 56.0\ngini = 0.5\nsamples = 2\nvalue = [1, 1]"] ;
131 -> 133 ;
134 [label="gini = 0.0\nsamples = 1\nvalue = [0, 1]"] ;
133 -> 134 ;
135 [label="gini = 0.0\nsamples = 1\nvalue = [1, 0]"] ;
133 -> 135 ;
136 [label="gini = 0.0\nsamples = 5\nvalue = [5, 0]"] ;
130 -> 136 ;
137 [label="gini = 0.0\nsamples = 1\nvalue = [0, 1]"] ;
129 -> 137 ;
138 [label="Relationship <= 1.0\ngini = 0.32\nsamples = 5\nvalue = [1, 4]"] ;
128 -> 138 ;
139 [label="gini = 0.0\nsamples = 1\nvalue = [1, 0]"] ;
138 -> 139 ;
140 [label="gini = 0.0\nsamples = 4\nvalue = [0, 4]"] ;
138 -> 140 ;
141 [label="Phone Type <= 0.5\ngini = 0.346\nsamples = 18\nvalue = [14, 4]"] ;
127 -> 141 ;
142 [label="Relationship <= 1.0\ngini = 0.49\nsamples = 7\nvalue = [4, 3]"] ;
141 -> 142 ;
143 [label="Age <= 52.5\ngini = 0.48\nsamples = 5\nvalue = [2, 3]"] ;
142 -> 143 ;
144 [label="Age <= 48.0\ngini = 0.444\nsamples = 3\nvalue = [2, 1]"] ;
143 -> 144 ;
145 [label="gini = 0.0\nsamples = 1\nvalue = [1, 0]"] ;
144 -> 145 ;
146 [label="Occupation <= 1.0\ngini = 0.5\nsamples = 2\nvalue = [1, 1]"] ;
144 -> 146 ;
147 [label="gini = 0.0\nsamples = 1\nvalue = [1, 0]"] ;
146 -> 147 ;
148 [label="gini = 0.0\nsamples = 1\nvalue = [0, 1]"] ;
146 -> 148 ;
149 [label="gini = 0.0\nsamples = 2\nvalue = [0, 2]"] ;
143 -> 149 ;
150 [label="gini = 0.0\nsamples = 2\nvalue = [2, 0]"] ;
142 -> 150 ;
151 [label="Relationship <= 0.5\ngini = 0.165\nsamples = 11\nvalue = [10, 1]"] ;
141 -> 151 ;
152 [label="gini = 0.0\nsamples = 6\nvalue = [6, 0]"] ;
151 -> 152 ;
153 [label="Age <= 50.5\ngini = 0.32\nsamples = 5\nvalue = [4, 1]"] ;
151 -> 153 ;
154 [label="gini = 0.0\nsamples = 3\nvalue = [3, 0]"] ;
153 -> 154 ;
155 [label="Phone Type <= 1.5\ngini = 0.5\nsamples = 2\nvalue = [1, 1]"] ;
153 -> 155 ;
156 [label="gini = 0.0\nsamples = 1\nvalue = [0, 1]"] ;
155 -> 156 ;
157 [label="gini = 0.0\nsamples = 1\nvalue = [1, 0]"] ;
155 -> 157 ;
158 [label="Age <= 50.5\ngini = 0.444\nsamples = 9\nvalue = [3, 6]"] ;
112 -> 158 ;
159 [label="Current Bike <= 1.0\ngini = 0.375\nsamples = 4\nvalue = [3, 1]"] ;
158 -> 159 ;
160 [label="gini = 0.0\nsamples = 1\nvalue = [0, 1]"] ;
159 -> 160 ;
161 [label="gini = 0.0\nsamples = 3\nvalue = [3, 0]"] ;
159 -> 161 ;
162 [label="gini = 0.0\nsamples = 5\nvalue = [0, 5]"] ;
158 -> 162 ;
}